6.062968969345092773e-01
7.035314440727233887e-01
-6.743763685226440430e-01
8.323850631713867188e-01
-1.234809756278991699e+00
-1.405655622482299805e+00
7.570276856422424316e-01
2.312510251998901367e+00
-7.955856919288635254e-01
2.985281944274902344e-01
-9.755608439445495605e-01
-8.580849170684814453e-01
-1.540776789188385010e-01
4.804563224315643311e-01
8.349989652633666992e-01
2.005403041839599609e+00
2.169383019208908081e-01
1.651899218559265137e-01
-1.521045118570327759e-01
-1.260606050491333008e+00
6.141383051872253418e-01
5.745995640754699707e-01
5.019939541816711426e-01
-8.075550794601440430e-01
1.747317165136337280e-01
2.915423512458801270e-01
3.882872760295867920e-01
3.002227544784545898e-01
9.856394492089748383e-03
-3.313949704170227051e-01
2.544307615607976913e-03
9.339690208435058594e-01
-1.739553362131118774e-01
8.427910208702087402e-01
-4.537348449230194092e-01
-5.920672044157981873e-02
-1.699514500796794891e-02
3.199458420276641846e-01
4.920364320278167725e-01
4.222493246197700500e-02
-4.767057895660400391e-01
-9.949345588684082031e-01
-1.851708511821925640e-03
